{"sizes":[13,32,16,6],"layers":[{"Needs":{},"Feelings":{},"Actions":{},"People":{},"Objects":{},"Places":{},"time_morning":{},"time_afternoon":{},"time_evening":{},"time_night":{},"session_len":{},"user_speed":{},"prev_word_len":{}},{"0":{"bias":-1.9019674062728882,"weights":{"Needs":-1.3488346338272095,"Feelings":-0.3838217556476593,"Actions":0.7701241374015808,"People":-0.8764913082122803,"Objects":0.676781177520752,"Places":-1.1602110862731934,"time_morning":-0.4955421984195709,"time_afternoon":-1.1975332498550415,"time_evening":-2.284123659133911,"time_night":1.4836761951446533,"session_len":-1.7632908821105957,"user_speed":6.964227676391602,"prev_word_len":5.751251220703125}},"1":{"bias":-1.2660764455795288,"weights":{"Needs":1.769491195678711,"Feelings":-0.3893382251262665,"Actions":1.2692558765411377,"People":-2.2446014881134033,"Objects":-0.3199625015258789,"Places":-1.5444830656051636,"time_morning":0.33171316981315613,"time_afternoon":1.907560110092163,"time_evening":-2.46625018119812,"time_night":-1.021992564201355,"session_len":-0.05994461104273796,"user_speed":-2.0232465267181396,"prev_word_len":2.0273876190185547}},"2":{"bias":0.6838901042938232,"weights":{"Needs":0.09489233046770096,"Feelings":-0.9035879373550415,"Actions":1.7653212547302246,"People":-0.05809788033366203,"Objects":0.3454616367816925,"Places":-0.1333315372467041,"time_morning":0.19215510785579681,"time_afternoon":0.1753014773130417,"time_evening":0.23288390040397644,"time_night":0.0981077328324318,"session_len":2.476471185684204,"user_speed":0.3060207664966583,"prev_word_len":-5.258934497833252}},"3":{"bias":-3.07641863822937,"weights":{"Needs":-0.34114113450050354,"Feelings":0.8275611400604248,"Actions":-0.9477182626724243,"People":-1.580008864402771,"Objects":-0.9951387643814087,"Places":0.19962523877620697,"time_morning":-2.6653146743774414,"time_afternoon":2.041242837905884,"time_evening":-0.00517923291772604,"time_night":-2.516018867492676,"session_len":2.469651937484741,"user_speed":2.7441246509552,"prev_word_len":-0.3138276934623718}},"4":{"bias":0.514421284198761,"weights":{"Needs":-0.3086045980453491,"Feelings":0.3465460240840912,"Actions":-0.38683032989501953,"People":1.5924259424209595,"Objects":-0.19156299531459808,"Places":-0.8754853010177612,"time_morning":0.324413001537323,"time_afternoon":0.019109277054667473,"time_evening":1.4596836566925049,"time_night":-0.8638496994972229,"session_len":-0.6109225153923035,"user_speed":-3.253814697265625,"prev_word_len":-2.1645326614379883}},"5":{"bias":3.619635820388794,"weights":{"Needs":1.296610713005066,"Feelings":0.9518329501152039,"Actions":0.18766851723194122,"People":0.6592987179756165,"Objects":1.0976704359054565,"Places":0.14247539639472961,"time_morning":1.0869580507278442,"time_afternoon":1.2377607822418213,"time_evening":0.7711654901504517,"time_night":1.1703139543533325,"session_len":-0.1534474641084671,"user_speed":-0.3971335291862488,"prev_word_len":-7.261295318603516}},"6":{"bias":0.9567140340805054,"weights":{"Needs":-0.4269876480102539,"Feelings":-0.40175536274909973,"Actions":0.15424013137817383,"People":1.5371792316436768,"Objects":0.672379732131958,"Places":-0.14743506908416748,"time_morning":1.3465678691864014,"time_afternoon":-0.17182257771492004,"time_evening":-0.4428856074810028,"time_night":0.7504907250404358,"session_len":-1.6597682237625122,"user_speed":2.126479148864746,"prev_word_len":-4.187188148498535}},"7":{"bias":6.5115485191345215,"weights":{"Needs":1.4920426607131958,"Feelings":0.851313054561615,"Actions":1.5393177270889282,"People":0.9973595142364502,"Objects":1.186400294303894,"Places":1.2296215295791626,"time_morning":1.8933902978897095,"time_afternoon":1.4778298139572144,"time_evening":1.3192858695983887,"time_night":2.557615041732788,"session_len":-0.01035554800182581,"user_speed":-5.94394588470459,"prev_word_len":-12.143460273742676}},"8":{"bias":-1.3206957578659058,"weights":{"Needs":0.1176362931728363,"Feelings":0.11115458607673645,"Actions":-0.30871906876564026,"People":0.23221173882484436,"Objects":-0.6207349300384521,"Places":-0.9645370244979858,"time_morning":-1.5618486404418945,"time_afternoon":-1.8211591243743896,"time_evening":0.15584610402584076,"time_night":2.061638355255127,"session_len":2.7484970092773438,"user_speed":-2.0813095569610596,"prev_word_len":-0.6329801082611084}},"9":{"bias":1.273055911064148,"weights":{"Needs":0.7060022950172424,"Feelings":-0.16974765062332153,"Actions":0.8381483554840088,"People":0.5837373733520508,"Objects":-0.26282480359077454,"Places":-0.3749399185180664,"time_morning":-0.27572309970855713,"time_afternoon":0.7282928228378296,"time_evening":0.7925564050674438,"time_night":0.186175137758255,"session_len":0.7102595567703247,"user_speed":-17.348247528076172,"prev_word_len":1.0442287921905518}},"10":{"bias":0.3157119154930115,"weights":{"Needs":-2.0766472816467285,"Feelings":1.4085136651992798,"Actions":-2.0164053440093994,"People":0.5937163233757019,"Objects":2.110438346862793,"Places":0.2930068373680115,"time_morning":-0.2922828197479248,"time_afternoon":-0.4248734712600708,"time_evening":-0.9415082931518555,"time_night":2.0273826122283936,"session_len":0.9851802587509155,"user_speed":-4.454827785491943,"prev_word_len":1.7882261276245117}},"11":{"bias":3.0962541103363037,"weights":{"Needs":-1.6850067377090454,"Feelings":0.9852753281593323,"Actions":0.9167805910110474,"People":0.22627609968185425,"Objects":1.20089590549469,"Places":1.2987937927246094,"time_morning":1.2434769868850708,"time_afternoon":1.2569595575332642,"time_evening":0.9252920746803284,"time_night":0.08385468274354935,"session_len":-0.45389243960380554,"user_speed":-6.563868522644043,"prev_word_len":-6.119015693664551}},"12":{"bias":-0.40309998393058777,"weights":{"Needs":0.5759028792381287,"Feelings":-0.03427010029554367,"Actions":0.3378137946128845,"People":-1.5974891185760498,"Objects":-0.5949881076812744,"Places":0.85897296667099,"time_morning":0.26075437664985657,"time_afternoon":0.9857302308082581,"time_evening":-0.6967170238494873,"time_night":-0.5700687766075134,"session_len":-1.6388605833053589,"user_speed":0.01741643063724041,"prev_word_len":-0.9973400235176086}},"13":{"bias":-0.06160802021622658,"weights":{"Needs":-0.137367844581604,"Feelings":0.035506341606378555,"Actions":-1.015077829360962,"People":0.8604402542114258,"Objects":0.5687788724899292,"Places":-0.06820476055145264,"time_morning":0.7959017157554626,"time_afternoon":-2.5037875175476074,"time_evening":0.38569146394729614,"time_night":1.2606232166290283,"session_len":-4.613193988800049,"user_speed":-0.23411037027835846,"prev_word_len":1.3793569803237915}},"14":{"bias":0.22984455525875092,"weights":{"Needs":-0.5337367653846741,"Feelings":-0.5498346090316772,"Actions":-0.03529932722449303,"People":3.2145116329193115,"Objects":-1.381671667098999,"Places":-0.7412381768226624,"time_morning":-0.5146878361701965,"time_afternoon":-0.33015355467796326,"time_evening":3.489767551422119,"time_night":-1.9837403297424316,"session_len":-0.9651548862457275,"user_speed":-2.5549046993255615,"prev_word_len":2.166294813156128}},"15":{"bias":0.38351115584373474,"weights":{"Needs":0.6747211813926697,"Feelings":0.7729161977767944,"Actions":0.7369611263275146,"People":-1.7855457067489624,"Objects":0.3228265941143036,"Places":0.026374179869890213,"time_morning":1.302812099456787,"time_afternoon":-0.09413718432188034,"time_evening":-2.649787425994873,"time_night":1.9169052839279175,"session_len":0.925719141960144,"user_speed":-3.467412233352661,"prev_word_len":2.9106814861297607}},"16":{"bias":0.8984580636024475,"weights":{"Needs":-1.4874128103256226,"Feelings":0.6014609932899475,"Actions":-2.014219045639038,"People":1.9524650573730469,"Objects":0.5116075873374939,"Places":1.3026621341705322,"time_morning":-0.009649878367781639,"time_afternoon":-2.185603618621826,"time_evening":2.969130039215088,"time_night":0.41011276841163635,"session_len":-0.033745668828487396,"user_speed":2.397932529449463,"prev_word_len":-3.917137861251831}},"17":{"bias":2.1959075927734375,"weights":{"Needs":0.33322271704673767,"Feelings":1.1068247556686401,"Actions":0.21771390736103058,"People":-0.1667570322751999,"Objects":0.4776545763015747,"Places":0.7771340012550354,"time_morning":1.6263236999511719,"time_afternoon":-0.09089789539575577,"time_evening":-1.0704240798950195,"time_night":1.667177677154541,"session_len":-0.15928590297698975,"user_speed":0.8272736072540283,"prev_word_len":-6.708235740661621}},"18":{"bias":-2.371314764022827,"weights":{"Needs":-0.10172820091247559,"Feelings":-0.1794549971818924,"Actions":-0.4352058470249176,"People":-0.37166643142700195,"Objects":-0.8367185592651367,"Places":-0.18062908947467804,"time_morning":-0.13009203970432281,"time_afternoon":-0.7348987460136414,"time_evening":-0.8940923810005188,"time_night":-0.6883592009544373,"session_len":-0.07465890049934387,"user_speed":4.884967803955078,"prev_word_len":3.8724255561828613}},"19":{"bias":-2.372710943222046,"weights":{"Needs":-1.0076934099197388,"Feelings":0.971167802810669,"Actions":-1.8212838172912598,"People":-0.13512344658374786,"Objects":-0.6644947528839111,"Places":-0.3082197606563568,"time_morning":-2.6889491081237793,"time_afternoon":1.2320557832717896,"time_evening":1.5937385559082031,"time_night":-3.4247233867645264,"session_len":0.7128402590751648,"user_speed":4.347066879272461,"prev_word_len":-0.4843313694000244}},"20":{"bias":0.5339656472206116,"weights":{"Needs":-0.15877926349639893,"Feelings":-1.4436304569244385,"Actions":0.43787646293640137,"People":4.285802364349365,"Objects":-0.7771996855735779,"Places":-1.7951709032058716,"time_morning":-0.8645393252372742,"time_afternoon":-0.7607252597808838,"time_evening":3.3402457237243652,"time_night":-1.209647297859192,"session_len":0.2290279120206833,"user_speed":-5.403468608856201,"prev_word_len":2.699960708618164}},"21":{"bias":1.2602238655090332,"weights":{"Needs":-2.479642152786255,"Feelings":3.9891066551208496,"Actions":-2.7463927268981934,"People":-3.711174488067627,"Objects":3.062295436859131,"Places":3.5706818103790283,"time_morning":0.24992962181568146,"time_afternoon":6.653543472290039,"time_evening":-4.484907627105713,"time_night":-1.0310890674591064,"session_len":-0.9800168871879578,"user_speed":-3.5967109203338623,"prev_word_len":2.0507638454437256}},"22":{"bias":0.45575931668281555,"weights":{"Needs":-0.5822975635528564,"Feelings":0.7236214280128479,"Actions":0.21655358374118805,"People":-1.035202145576477,"Objects":0.49391770362854004,"Places":0.61431884765625,"time_morning":-1.033554196357727,"time_afternoon":2.8453524112701416,"time_evening":-0.4640613794326782,"time_night":-0.8143589496612549,"session_len":-1.6343917846679688,"user_speed":1.4127031564712524,"prev_word_len":-3.1285457611083984}},"23":{"bias":0.12525725364685059,"weights":{"Needs":0.8121869564056396,"Feelings":-1.0656124353408813,"Actions":0.5506789088249207,"People":-0.7917057871818542,"Objects":-0.29476845264434814,"Places":0.5781082510948181,"time_morning":-0.03625624254345894,"time_afternoon":1.2272921800613403,"time_evening":-1.0962603092193604,"time_night":-0.5612332224845886,"session_len":-1.9508554935455322,"user_speed":-1.0464606285095215,"prev_word_len":-0.4293369650840759}},"24":{"bias":0.923114001750946,"weights":{"Needs":-0.9219377636909485,"Feelings":0.8015359044075012,"Actions":-0.6539466977119446,"People":0.21692824363708496,"Objects":-0.06537462770938873,"Places":2.1327199935913086,"time_morning":-1.9172343015670776,"time_afternoon":2.1711039543151855,"time_evening":1.013365387916565,"time_night":-0.020514046773314476,"session_len":0.7709625959396362,"user_speed":2.314833402633667,"prev_word_len":-4.103116035461426}},"25":{"bias":2.109118938446045,"weights":{"Needs":0.5747214555740356,"Feelings":0.035269878804683685,"Actions":0.4814475476741791,"People":1.118791937828064,"Objects":0.18896114826202393,"Places":0.004386602435261011,"time_morning":1.8913859128952026,"time_afternoon":-1.1299279928207397,"time_evening":2.831050395965576,"time_night":-1.420052170753479,"session_len":-3.102158308029175,"user_speed":-0.5500547289848328,"prev_word_len":0.9646843075752258}},"26":{"bias":-0.450033575296402,"weights":{"Needs":-0.5290939211845398,"Feelings":0.18045979738235474,"Actions":-0.29115089774131775,"People":0.9540637731552124,"Objects":-0.5489500164985657,"Places":-0.16861838102340698,"time_morning":-0.4675880968570709,"time_afternoon":-1.0456591844558716,"time_evening":0.18171469867229462,"time_night":1.0769356489181519,"session_len":0.5612355470657349,"user_speed":-2.1200315952301025,"prev_word_len":0.43751761317253113}},"27":{"bias":-1.234228491783142,"weights":{"Needs":0.4406719207763672,"Feelings":-1.0486955642700195,"Actions":0.2561742067337036,"People":0.3868415951728821,"Objects":-0.48027756810188293,"Places":-0.7153807282447815,"time_morning":-0.9733323454856873,"time_afternoon":0.0080532506108284,"time_evening":-0.14878065884113312,"time_night":0.21498365700244904,"session_len":0.1642303764820099,"user_speed":1.9038417339324951,"prev_word_len":1.2413828372955322}},"28":{"bias":-2.2547414302825928,"weights":{"Needs":-1.6788324117660522,"Feelings":-0.5396347641944885,"Actions":-1.6020675897598267,"People":0.08895944803953171,"Objects":0.632001519203186,"Places":0.9653179049491882,"time_morning":0.04131264612078667,"time_afternoon":-1.1121070384979248,"time_evening":-0.6151401996612549,"time_night":-0.6927257180213928,"session_len":-0.9761704802513123,"user_speed":0.39014965295791626,"prev_word_len":5.777503490447998}},"29":{"bias":-0.07182545214891434,"weights":{"Needs":1.2672336101531982,"Feelings":-0.7213557958602905,"Actions":0.4319060742855072,"People":-1.118713140487671,"Objects":-0.4235122501850128,"Places":0.7482017874717712,"time_morning":-1.0429439544677734,"time_afternoon":1.7646211385726929,"time_evening":-0.9730331897735596,"time_night":0.319796621799469,"session_len":-1.3162988424301147,"user_speed":-3.0523879528045654,"prev_word_len":-0.2779940962791443}},"30":{"bias":3.576605796813965,"weights":{"Needs":0.740784227848053,"Feelings":1.4085854291915894,"Actions":0.9923663139343262,"People":-0.2666279673576355,"Objects":0.7401785254478455,"Places":0.48350855708122253,"time_morning":4.476382255554199,"time_afternoon":-2.406463623046875,"time_evening":0.9891678690910339,"time_night":1.006264090538025,"session_len":-9.525925636291504,"user_speed":0.25268834829330444,"prev_word_len":-0.3446360230445862}},"31":{"bias":-1.2505803108215332,"weights":{"Needs":0.009451214224100113,"Feelings":-0.324212908744812,"Actions":0.13291823863983154,"People":-0.16692431271076202,"Objects":-0.019030438736081123,"Places":-0.7041876912117004,"time_morning":-0.5437256693840027,"time_afternoon":-0.8490031957626343,"time_evening":-0.9839953780174255,"time_night":0.4347996115684509,"session_len":-0.06991764903068542,"user_speed":2.0374951362609863,"prev_word_len":2.0414464473724365}}},{"0":{"bias":0.8115454316139221,"weights":{"0":-4.280734539031982,"1":-0.6101930737495422,"2":-0.4932210147380829,"3":-0.1757233589887619,"4":2.9671456813812256,"5":-0.8905283212661743,"6":-0.2089608907699585,"7":-4.652545928955078,"8":1.1896710395812988,"9":0.9228120446205139,"10":1.009874939918518,"11":1.8893886804580688,"12":-1.2768341302871704,"13":1.575657606124878,"14":3.9340240955352783,"15":-1.6494532823562622,"16":1.4022207260131836,"17":-2.413487195968628,"18":-1.5993618965148926,"19":0.38518720865249634,"20":5.033636093139648,"21":-0.01129145734012127,"22":-1.0899044275283813,"23":-0.2859306037425995,"24":0.7603593468666077,"25":2.8850488662719727,"26":1.1204887628555298,"27":0.11001027375459671,"28":2.2409985065460205,"29":0.23456436395645142,"30":-0.009100543335080147,"31":-0.4603264033794403}},"1":{"bias":0.20707863569259644,"weights":{"0":-0.21907974779605865,"1":-2.061021327972412,"2":-1.206243634223938,"3":-3.236452102661133,"4":0.42494165897369385,"5":-0.18636660277843475,"6":-0.463730126619339,"7":-0.4672895669937134,"8":0.5868381857872009,"9":2.8220527172088623,"10":0.6282467246055603,"11":1.9849966764450073,"12":0.054311443120241165,"13":-0.2776661515235901,"14":-1.4456055164337158,"15":1.3009884357452393,"16":2.2411067485809326,"17":0.28405070304870605,"18":0.3714834749698639,"19":-3.630018472671509,"20":-1.2511515617370605,"21":3.4742865562438965,"22":-1.7395278215408325,"23":-0.7370172739028931,"24":0.564285159111023,"25":-1.6465418338775635,"26":0.3732359707355499,"27":-0.49127015471458435,"28":0.8648327589035034,"29":-0.27184510231018066,"30":-2.3376643657684326,"31":0.267817884683609}},"2":{"bias":-0.40411847829818726,"weights":{"0":-0.3988945782184601,"1":0.20327171683311462,"2":-0.31468117237091064,"3":1.242233157157898,"4":0.771870493888855,"5":0.13527101278305054,"6":0.4184533655643463,"7":1.1874655485153198,"8":-0.9831310510635376,"9":-0.448604941368103,"10":-1.51131010055542,"11":-0.9000691175460815,"12":0.2730106711387634,"13":0.6011542081832886,"14":1.9019694328308105,"15":-1.7335186004638672,"16":0.08043281733989716,"17":-0.6489183902740479,"18":0.20089296996593475,"19":2.005357027053833,"20":1.4693375825881958,"21":-1.9695448875427246,"22":0.5265511870384216,"23":0.6189250946044922,"24":-1.1672152280807495,"25":1.9287590980529785,"26":-0.5334634184837341,"27":-0.2317408323287964,"28":-0.08635511994361877,"29":0.0018478616839274764,"30":1.3844534158706665,"31":-0.37364837527275085}},"3":{"bias":0.0013976080808788538,"weights":{"0":1.2180923223495483,"1":1.1019830703735352,"2":-2.5528340339660645,"3":0.846332311630249,"4":-0.8585987687110901,"5":-4.955413341522217,"6":-2.6730856895446777,"7":-5.679913520812988,"8":0.6192108392715454,"9":1.520780086517334,"10":0.8390488028526306,"11":-0.5679209232330322,"12":-0.39836588501930237,"13":0.702652096748352,"14":0.2679232060909271,"15":1.4250168800354004,"16":-2.0445785522460938,"17":-3.45040225982666,"18":1.1985422372817993,"19":0.42550864815711975,"20":0.8076026439666748,"21":0.5409481525421143,"22":-1.6967737674713135,"23":-0.446262001991272,"24":-2.5926458835601807,"25":-0.016346300020813942,"26":0.7386847734451294,"27":0.7874894142150879,"28":2.727789878845215,"29":-0.2781732380390167,"30":-0.21178720891475677,"31":1.4266084432601929}},"4":{"bias":-0.8717260360717773,"weights":{"0":3.5032269954681396,"1":2.3681862354278564,"2":-0.06728647649288177,"3":0.8359805345535278,"4":-1.69642174243927,"5":1.310020923614502,"6":-0.24296672642230988,"7":5.362215995788574,"8":-1.558648943901062,"9":-0.9345992803573608,"10":-1.109527349472046,"11":-2.5663273334503174,"12":0.4535403251647949,"13":-0.5478560924530029,"14":-1.7159801721572876,"15":0.27501174807548523,"16":-3.545658826828003,"17":1.4864004850387573,"18":0.7776997685432434,"19":0.3436410129070282,"20":-3.478973150253296,"21":-3.0865225791931152,"22":1.3877686262130737,"23":0.6379712820053101,"24":-0.8035858869552612,"25":-2.0082476139068604,"26":-0.9928093552589417,"27":-0.008213880471885204,"28":-2.109834671020508,"29":0.3688015043735504,"30":-0.021350979804992676,"31":-0.22130610048770905}},"5":{"bias":-0.20893366634845734,"weights":{"0":-0.3308057487010956,"1":-1.642577886581421,"2":0.25810813903808594,"3":-0.7269645929336548,"4":0.6102497577667236,"5":-0.1441003531217575,"6":-0.24119794368743896,"7":-0.2386651337146759,"8":1.6009321212768555,"9":-0.7460046410560608,"10":0.25828495621681213,"11":0.2620094120502472,"12":-0.5653640031814575,"13":0.3034597337245941,"14":1.290448546409607,"15":-0.8084583282470703,"16":2.087139129638672,"17":-0.04544781148433685,"18":-0.3715111017227173,"19":-0.46104833483695984,"20":1.0894602537155151,"21":-0.9741150736808777,"22":-0.9951666593551636,"23":-0.6473342180252075,"24":1.3045947551727295,"25":0.10015247017145157,"26":0.7306742072105408,"27":-0.22016316652297974,"28":-0.049467939883470535,"29":-0.31906744837760925,"30":-1.5012701749801636,"31":-0.3706822395324707}},"6":{"bias":-0.8039914965629578,"weights":{"0":-2.921926259994507,"1":-1.8978989124298096,"2":-1.5502671003341675,"3":-3.1360573768615723,"4":0.3397164046764374,"5":0.2633731961250305,"6":0.7964458465576172,"7":-0.768280565738678,"8":-0.4992021918296814,"9":8.248005867004395,"10":0.43589305877685547,"11":1.7938239574432373,"12":0.08684484660625458,"13":-0.354686975479126,"14":-1.4500610828399658,"15":0.758330225944519,"16":1.4358341693878174,"17":-0.4768553674221039,"18":-0.6497265100479126,"19":-2.6386420726776123,"20":-0.9008516669273376,"21":3.4907307624816895,"22":-0.5708310604095459,"23":-0.7219684720039368,"24":-0.8095023036003113,"25":0.372103214263916,"26":-0.21037891507148743,"27":-1.3070387840270996,"28":0.6501769423484802,"29":-0.30760520696640015,"30":1.9584474563598633,"31":-0.783390998840332}},"7":{"bias":-0.07130713760852814,"weights":{"0":-1.2854880094528198,"1":2.6139237880706787,"2":-1.4008055925369263,"3":0.308650404214859,"4":-0.6676232218742371,"5":-0.0007539817015640438,"6":-1.3692864179611206,"7":-4.25438928604126,"8":0.2961238622665405,"9":1.0504858493804932,"10":2.0524933338165283,"11":4.244522571563721,"12":1.2282092571258545,"13":-1.710764765739441,"14":-1.2703723907470703,"15":1.7071129083633423,"16":-2.3993523120880127,"17":-1.210976243019104,"18":-2.426251173019409,"19":-0.5308250784873962,"20":-2.123562812805176,"21":4.3449320793151855,"22":2.058901071548462,"23":1.6724869012832642,"24":1.2147942781448364,"25":-0.7242859601974487,"26":-0.29836639761924744,"27":-0.305867075920105,"28":0.5525134801864624,"29":2.3037147521972656,"30":-1.2888689041137695,"31":-0.3493364751338959}},"8":{"bias":-1.1005147695541382,"weights":{"0":-4.672203540802002,"1":0.2518959641456604,"2":-1.83133065700531,"3":-2.617797374725342,"4":1.0756874084472656,"5":0.020914455875754356,"6":-2.291774034500122,"7":0.6107810735702515,"8":0.5119648575782776,"9":8.00629711151123,"10":1.8357982635498047,"11":3.660660743713379,"12":0.20621132850646973,"13":-1.0540013313293457,"14":-0.16304251551628113,"15":1.8995072841644287,"16":-1.4174643754959106,"17":-1.3359438180923462,"18":-3.0987260341644287,"19":-2.761793613433838,"20":1.1449795961380005,"21":2.0181832313537598,"22":-1.1447943449020386,"23":0.8352832198143005,"24":-2.159087896347046,"25":-0.01638561673462391,"26":1.2806589603424072,"27":-2.0363428592681885,"28":0.2495885044336319,"29":1.970505952835083,"30":0.7369434237480164,"31":-1.93450129032135}},"9":{"bias":0.2775864005088806,"weights":{"0":0.34649190306663513,"1":0.2313472479581833,"2":1.9172542095184326,"3":-0.8050942420959473,"4":-0.5200140476226807,"5":-0.5011412501335144,"6":-2.4778597354888916,"7":-0.6161898374557495,"8":3.5519235134124756,"9":-3.7668802738189697,"10":2.6228315830230713,"11":-0.012664035893976688,"12":-1.5890588760375977,"13":-3.903316020965576,"14":-1.163149356842041,"15":1.5345382690429688,"16":0.23357225954532623,"17":-0.22872741520404816,"18":0.18950846791267395,"19":-1.5981054306030273,"20":-1.1082004308700562,"21":-0.9751327633857727,"22":-1.8279703855514526,"23":-1.9105896949768066,"24":2.5261542797088623,"25":-3.0899980068206787,"26":1.0777825117111206,"27":0.8413476943969727,"28":-1.895034909248352,"29":0.051731739193201065,"30":-8.149532318115234,"31":0.8286133408546448}},"10":{"bias":-0.13734103739261627,"weights":{"0":-1.1748270988464355,"1":-0.8977651000022888,"2":2.106614112854004,"3":-0.39925146102905273,"4":0.9877395629882812,"5":4.4733147621154785,"6":2.562687635421753,"7":5.371755599975586,"8":-0.7971330881118774,"9":-1.0695940256118774,"10":-0.9541739225387573,"11":0.9338535666465759,"12":0.295956552028656,"13":-1.0107518434524536,"14":-0.38513296842575073,"15":-2.1107177734375,"16":2.0535905361175537,"17":2.946761131286621,"18":-1.394551157951355,"19":-0.002178833819925785,"20":-0.6155444979667664,"21":0.2505655586719513,"22":1.960889458656311,"23":-0.005567687563598156,"24":2.5152573585510254,"25":0.022198734804987907,"26":-0.844359278678894,"27":-0.9739398956298828,"28":-2.0183048248291016,"29":0.0972663015127182,"30":0.2366272509098053,"31":-1.6407089233398438}},"11":{"bias":0.09004374593496323,"weights":{"0":1.054744839668274,"1":1.1591300964355469,"2":-2.4920897483825684,"3":0.5912901163101196,"4":-0.8087694644927979,"5":-5.1367669105529785,"6":-2.7176876068115234,"7":-5.911436557769775,"8":0.5463193655014038,"9":1.4348090887069702,"10":1.0431642532348633,"11":-0.775994062423706,"12":-0.679947018623352,"13":0.8659645318984985,"14":0.37554070353507996,"15":1.5775057077407837,"16":-2.16754412651062,"17":-3.634429931640625,"18":1.237325668334961,"19":0.6190096735954285,"20":0.6985853910446167,"21":0.6508314609527588,"22":-1.8212075233459473,"23":-0.4109242260456085,"24":-2.608187437057495,"25":0.038785338401794434,"26":0.6052377820014954,"27":0.9704201817512512,"28":2.740048885345459,"29":-0.02589050680398941,"30":-0.26291680335998535,"31":1.3598756790161133}},"12":{"bias":-0.6016502976417542,"weights":{"0":1.2057597637176514,"1":-0.4319101572036743,"2":1.2054802179336548,"3":-0.22217370569705963,"4":-0.6782655119895935,"5":0.3430628776550293,"6":0.5773117542266846,"7":4.404143333435059,"8":-0.22181862592697144,"9":-2.813854217529297,"10":-2.329547882080078,"11":-2.83707857131958,"12":-0.013398022390902042,"13":-0.7319220900535583,"14":-1.1041325330734253,"15":-0.8974860310554504,"16":0.03257686272263527,"17":1.2719669342041016,"18":1.4295798540115356,"19":0.44747060537338257,"20":-0.9067703485488892,"21":-4.261172294616699,"22":-0.2672836184501648,"23":-0.16940635442733765,"24":-1.7639015913009644,"25":-1.3818614482879639,"26":-0.5938288569450378,"27":-0.16764205694198608,"28":-1.8799203634262085,"29":-1.397832989692688,"30":0.5093997716903687,"31":0.531215250492096}},"13":{"bias":-0.24061301350593567,"weights":{"0":0.8457157015800476,"1":-0.8659031987190247,"2":0.4963706135749817,"3":-1.3126333951950073,"4":-0.15622448921203613,"5":-0.6419708728790283,"6":-0.5880245566368103,"7":-0.08640944957733154,"8":1.5411367416381836,"9":-1.2531360387802124,"10":0.38517263531684875,"11":-0.2967302203178406,"12":-0.5613700151443481,"13":-1.1190099716186523,"14":-0.7063726186752319,"15":0.6275326609611511,"16":0.8587345480918884,"17":0.09600488841533661,"18":0.3578203022480011,"19":-1.5613125562667847,"20":-0.534842312335968,"21":-0.6468801498413086,"22":-1.4363669157028198,"23":-1.1670118570327759,"24":0.6019073128700256,"25":-1.4491429328918457,"26":0.6746541261672974,"27":0.0757281556725502,"28":-0.38598671555519104,"29":-0.4620768129825592,"30":-2.948593854904175,"31":0.5695706605911255}},"14":{"bias":-0.3885059356689453,"weights":{"0":1.5023458003997803,"1":-0.998714804649353,"2":1.0973351001739502,"3":0.1582060605287552,"4":-0.3923497200012207,"5":0.21133548021316528,"6":0.5581497550010681,"7":4.446841716766357,"8":0.2688308358192444,"9":-3.5305209159851074,"10":-2.4471232891082764,"11":-2.842214584350586,"12":-0.037619296461343765,"13":-0.33336177468299866,"14":-0.15252986550331116,"15":-1.4855726957321167,"16":1.0245182514190674,"17":1.1388170719146729,"18":1.4992467164993286,"19":1.0934830904006958,"20":0.228572279214859,"21":-5.222272872924805,"22":-0.48918235301971436,"23":-0.35338833928108215,"24":-1.4260846376419067,"25":-0.5862340331077576,"26":-0.5876540541648865,"27":-0.17453701794147491,"28":-1.5972696542739868,"29":-1.3078444004058838,"30":0.11592628061771393,"31":0.1017872542142868}},"15":{"bias":0.06974408775568008,"weights":{"0":0.5167638659477234,"1":0.37511739134788513,"2":-1.3789993524551392,"3":0.4009074568748474,"4":-0.45696109533309937,"5":-3.2412965297698975,"6":-1.3546658754348755,"7":-3.94081711769104,"8":0.04458245635032654,"9":0.8072409629821777,"10":0.39273717999458313,"11":-0.4634816348552704,"12":-0.22889959812164307,"13":0.5450777411460876,"14":-0.041326284408569336,"15":0.9529356956481934,"16":-1.0070830583572388,"17":-2.3003718852996826,"18":0.8773804306983948,"19":0.26937955617904663,"20":0.24522076547145844,"21":0.2994573712348938,"22":-0.9369182586669922,"23":-0.4340912699699402,"24":-1.2244386672973633,"25":0.011002685874700546,"26":0.4504387676715851,"27":0.6413046717643738,"28":1.3361018896102905,"29":-0.08897124975919724,"30":-0.2707979679107666,"31":0.9033063650131226}}},{"Needs":{"bias":-1.7456632852554321,"weights":{"0":-3.352919578552246,"1":4.5582733154296875,"2":-3.1706275939941406,"3":-4.8750386238098145,"4":-2.565478563308716,"5":-2.206582546234131,"6":4.442814826965332,"7":-5.851102828979492,"8":7.201837062835693,"9":-7.089675426483154,"10":4.618048667907715,"11":-4.797206878662109,"12":-4.271510601043701,"13":-0.35927578806877136,"14":-2.6392507553100586,"15":-1.7781399488449097}},"Feelings":{"bias":-4.162487030029297,"weights":{"0":-1.7533172369003296,"1":1.960142970085144,"2":-2.933117151260376,"3":-4.259792804718018,"4":-2.0722672939300537,"5":0.3537825644016266,"6":-3.4713680744171143,"7":-1.8126654624938965,"8":-4.653838634490967,"9":7.788727283477783,"10":-0.8471815586090088,"11":-4.508047580718994,"12":0.47067752480506897,"13":2.295375108718872,"14":0.7265852093696594,"15":-1.933276891708374}},"Actions":{"bias":-3.212448835372925,"weights":{"0":-7.425859451293945,"1":-4.154674530029297,"2":0.22256924211978912,"3":-2.8298499584198,"4":4.335944652557373,"5":-3.101313591003418,"6":-3.442915916442871,"7":-6.966034412384033,"8":-2.5610804557800293,"9":-5.772276401519775,"10":-0.5850116610527039,"11":-3.0356109142303467,"12":3.5770208835601807,"13":-3.0858774185180664,"14":4.691427230834961,"15":-1.744443416595459}},"People":{"bias":-2.1400158405303955,"weights":{"0":5.834754943847656,"1":-4.634262561798096,"2":1.841850996017456,"3":-4.523415565490723,"4":-7.079660415649414,"5":-0.06651275604963303,"6":-6.370543479919434,"7":-2.283911943435669,"8":-6.062778472900391,"9":-1.8738834857940674,"10":2.198573350906372,"11":-4.663908958435059,"12":-1.455898404121399,"13":-1.7524693012237549,"14":-0.09853148460388184,"15":-3.009705066680908}},"Objects":{"bias":-0.4910274147987366,"weights":{"0":0.36627694964408875,"1":-0.9405552744865417,"2":-0.5113537907600403,"3":4.293588161468506,"4":-1.3911266326904297,"5":-0.5765891075134277,"6":-0.42361369729042053,"7":1.2135474681854248,"8":-0.3620016872882843,"9":-1.1861048936843872,"10":-7.058813571929932,"11":4.601582050323486,"12":-1.4620000123977661,"13":-0.06987373530864716,"14":-1.488250970840454,"15":3.031629800796509}},"Places":{"bias":-2.473775625228882,"weights":{"0":-2.2783403396606445,"1":-2.6281678676605225,"2":-2.28190016746521,"3":-3.7068498134613037,"4":1.7309048175811768,"5":-2.626735210418701,"6":-4.599038600921631,"7":5.783394813537598,"8":-4.852359294891357,"9":0.5284273028373718,"10":2.43327260017395,"11":-4.0456366539001465,"12":-3.4530413150787354,"13":-2.126495122909546,"14":-4.022716045379639,"15":-2.7309341430664062}}}],"outputLookup":true,"inputLookup":true,"activation":"sigmoid","trainOpts":{"iterations":4000,"errorThresh":0.002,"log":true,"logPeriod":100,"learningRate":0.1,"momentum":0.1,"callbackPeriod":10,"beta1":0.9,"beta2":0.999,"epsilon":1e-8}}